<?xml version="1.0" encoding="UTF-8"?>
<PMML xmlns="http://www.dmg.org/PMML-4_4" version="4.4.1">
    <Header copyright="Copyright (c) 2021 Software AG" description="Default description">
        <Application name="Nyoka" version="5.0.0"/>
        <Timestamp>2021-08-06 18:51:16.027926</Timestamp>
    </Header>
    <DataDictionary numberOfFields="10">
        <DataField name="x1" optype="continuous" dataType="double"/>
        <DataField name="x2" optype="continuous" dataType="double"/>
        <DataField name="x3" optype="continuous" dataType="double"/>
        <DataField name="x4" optype="continuous" dataType="double"/>
        <DataField name="x5" optype="continuous" dataType="double"/>
        <DataField name="x6" optype="continuous" dataType="double"/>
        <DataField name="x7" optype="continuous" dataType="double"/>
        <DataField name="x8" optype="continuous" dataType="double"/>
        <DataField name="x9" optype="continuous" dataType="double"/>
        <DataField name="airflow" optype="continuous" dataType="double"/>
    </DataDictionary>
    <MiningModel modelName="GradientBoostingRegressor" functionName="regression">
        <MiningSchema>
            <MiningField name="x1" usageType="active" optype="continuous"/>
            <MiningField name="x2" usageType="active" optype="continuous"/>
            <MiningField name="x3" usageType="active" optype="continuous"/>
            <MiningField name="x4" usageType="active" optype="continuous"/>
            <MiningField name="x5" usageType="active" optype="continuous"/>
            <MiningField name="x6" usageType="active" optype="continuous"/>
            <MiningField name="x7" usageType="active" optype="continuous"/>
            <MiningField name="x8" usageType="active" optype="continuous"/>
            <MiningField name="x9" usageType="active" optype="continuous"/>
            <MiningField name="airflow" usageType="target" optype="continuous"/>
        </MiningSchema>
        <Output>
            <OutputField name="predicted_airflow" optype="continuous" dataType="double" feature="predictedValue"/>
        </Output>
        <Targets>
            <Target field="airflow" rescaleConstant="1.211168e+01" rescaleFactor="1.000000e-02"/>
        </Targets>
        <Segmentation multipleModelMethod="sum" missingThreshold="1">
            <Segment id="0" weight="1">
                <True/>
                <TreeModel modelName="DecisionTreeRegressor" functionName="regression" missingValuePenalty="1.0">
                    <MiningSchema>
                        <MiningField name="x1" usageType="active"/>
                        <MiningField name="x2" usageType="active"/>
                        <MiningField name="x3" usageType="active"/>
                        <MiningField name="x4" usageType="active"/>
                        <MiningField name="x5" usageType="active"/>
                        <MiningField name="x6" usageType="active"/>
                        <MiningField name="x7" usageType="active"/>
                        <MiningField name="x8" usageType="active"/>
                        <MiningField name="x9" usageType="active"/>
                    </MiningSchema>
                    <Node id="0" recordCount="1076.0">
                        <True/>
                        <Node id="1" recordCount="856.0">
                            <SimplePredicate field="x3" operator="lessOrEqual" value="1039.9626"/>
                            <Node id="2" recordCount="367.0">
                                <SimplePredicate field="x8" operator="lessOrEqual" value="38.591652"/>
                                <Node id="3" recordCount="343.0">
                                    <SimplePredicate field="x9" operator="lessOrEqual" value="74.6575"/>
                                    <Node id="4" score="-6.1218827314568962" recordCount="168.0">
                                        <SimplePredicate field="x2" operator="lessOrEqual" value="107.7238"/>
                                    </Node>
                                    <Node id="5" score="-7.3702467790759432" recordCount="175.0">
                                        <SimplePredicate field="x2" operator="greaterThan" value="107.7238"/>
                                    </Node>
                                </Node>
                                <Node id="6" recordCount="24.0">
                                    <SimplePredicate field="x9" operator="greaterThan" value="74.6575"/>
                                    <Node id="7" score="7.1783160780669117" recordCount="1.0">
                                        <SimplePredicate field="x3" operator="lessOrEqual" value="56.276947"/>
                                    </Node>
                                    <Node id="8" score="-3.1629882697591745" recordCount="23.0">
                                        <SimplePredicate field="x3" operator="greaterThan" value="56.276947"/>
                                    </Node>
                                </Node>
                            </Node>
                            <Node id="9" recordCount="489.0">
                                <SimplePredicate field="x8" operator="greaterThan" value="38.591652"/>
                                <Node id="10" score="68.6977660780669055" recordCount="2.0">
                                    <SimplePredicate field="x4" operator="lessOrEqual" value="15.4459"/>
                                </Node>
                                <Node id="11" recordCount="487.0">
                                    <SimplePredicate field="x4" operator="greaterThan" value="15.4459"/>
                                    <Node id="12" score="-3.0096215029266054" recordCount="463.0">
                                        <SimplePredicate field="x2" operator="lessOrEqual" value="2398.3699"/>
                                    </Node>
                                    <Node id="13" score="2.6720660780669121" recordCount="24.0">
                                        <SimplePredicate field="x2" operator="greaterThan" value="2398.3699"/>
                                    </Node>
                                </Node>
                            </Node>
                        </Node>
                        <Node id="14" recordCount="220.0">
                            <SimplePredicate field="x3" operator="greaterThan" value="1039.9626"/>
                            <Node id="15" score="0.5983160780669134" recordCount="4.0">
                                <SimplePredicate field="x2" operator="lessOrEqual" value="1778.5883"/>
                            </Node>
                            <Node id="16" recordCount="216.0">
                                <SimplePredicate field="x2" operator="greaterThan" value="1778.5883"/>
                                <Node id="17" score="1.6483160780669124" recordCount="1.0">
                                    <SimplePredicate field="x7" operator="lessOrEqual" value="24.0309"/>
                                </Node>
                                <Node id="18" recordCount="215.0">
                                    <SimplePredicate field="x7" operator="greaterThan" value="24.0309"/>
                                    <Node id="19" score="13.3583160780669132" recordCount="11.0">
                                        <SimplePredicate field="x3" operator="lessOrEqual" value="1669.0173"/>
                                    </Node>
                                    <Node id="20" score="16.7881690192433943" recordCount="204.0">
                                        <SimplePredicate field="x3" operator="greaterThan" value="1669.0173"/>
                                    </Node>
                                </Node>
                            </Node>
                        </Node>
                    </Node>
                </TreeModel>
            </Segment>
            <Segment id="1" weight="1">
                <True/>
                <TreeModel modelName="DecisionTreeRegressor" functionName="regression" missingValuePenalty="1.0">
                    <MiningSchema>
                        <MiningField name="x1" usageType="active"/>
                        <MiningField name="x2" usageType="active"/>
                        <MiningField name="x3" usageType="active"/>
                        <MiningField name="x4" usageType="active"/>
                        <MiningField name="x5" usageType="active"/>
                        <MiningField name="x6" usageType="active"/>
                        <MiningField name="x7" usageType="active"/>
                        <MiningField name="x8" usageType="active"/>
                        <MiningField name="x9" usageType="active"/>
                    </MiningSchema>
                    <Node id="0" recordCount="1076.0">
                        <True/>
                        <Node id="1" recordCount="856.0">
                            <SimplePredicate field="x3" operator="lessOrEqual" value="1039.9626"/>
                            <Node id="2" recordCount="367.0">
                                <SimplePredicate field="x8" operator="lessOrEqual" value="38.591652"/>
                                <Node id="3" recordCount="341.0">
                                    <SimplePredicate field="x7" operator="lessOrEqual" value="77.3966"/>
                                    <Node id="4" score="-6.0426464610781467" recordCount="161.0">
                                        <SimplePredicate field="x2" operator="lessOrEqual" value="14.8547"/>
                                    </Node>
                                    <Node id="5" score="-7.2934034806330112" recordCount="180.0">
                                        <SimplePredicate field="x2" operator="greaterThan" value="14.8547"/>
                                    </Node>
                                </Node>
                                <Node id="6" recordCount="26.0">
                                    <SimplePredicate field="x7" operator="greaterThan" value="77.3966"/>
                                    <Node id="7" score="7.1065329172862430" recordCount="1.0">
                                        <SimplePredicate field="x3" operator="lessOrEqual" value="56.276947"/>
                                    </Node>
                                    <Node id="8" score="-3.2571730610284559" recordCount="25.0">
                                        <SimplePredicate field="x3" operator="greaterThan" value="56.276947"/>
                                    </Node>
                                </Node>
                            </Node>
                            <Node id="9" recordCount="489.0">
                                <SimplePredicate field="x8" operator="greaterThan" value="38.591652"/>
                                <Node id="10" score="68.0107884172862498" recordCount="2.0">
                                    <SimplePredicate field="x4" operator="lessOrEqual" value="15.4459"/>
                                </Node>
                                <Node id="11" recordCount="487.0">
                                    <SimplePredicate field="x4" operator="greaterThan" value="15.4459"/>
                                    <Node id="12" score="-2.9795252878973413" recordCount="463.0">
                                        <SimplePredicate field="x2" operator="lessOrEqual" value="2398.3699"/>
                                    </Node>
                                    <Node id="13" score="2.6453454172862441" recordCount="24.0">
                                        <SimplePredicate field="x2" operator="greaterThan" value="2398.3699"/>
                                    </Node>
                                </Node>
                            </Node>
                        </Node>
                        <Node id="14" recordCount="220.0">
                            <SimplePredicate field="x3" operator="greaterThan" value="1039.9626"/>
                            <Node id="15" score="0.5923329172862433" recordCount="4.0">
                                <SimplePredicate field="x2" operator="lessOrEqual" value="1778.5883"/>
                            </Node>
                            <Node id="16" recordCount="216.0">
                                <SimplePredicate field="x2" operator="greaterThan" value="1778.5883"/>
                                <Node id="17" score="1.6318329172862427" recordCount="1.0">
                                    <SimplePredicate field="x7" operator="lessOrEqual" value="24.0309"/>
                                </Node>
                                <Node id="18" recordCount="215.0">
                                    <SimplePredicate field="x7" operator="greaterThan" value="24.0309"/>
                                    <Node id="19" score="13.2247329172862464" recordCount="11.0">
                                        <SimplePredicate field="x3" operator="lessOrEqual" value="1669.0173"/>
                                    </Node>
                                    <Node id="20" score="16.6202873290509316" recordCount="204.0">
                                        <SimplePredicate field="x3" operator="greaterThan" value="1669.0173"/>
                                    </Node>
                                </Node>
                            </Node>
                        </Node>
                    </Node>
                </TreeModel>
            </Segment>
            <Segment id="2" weight="1">
                <True/>
                <TreeModel modelName="DecisionTreeRegressor" functionName="regression" missingValuePenalty="1.0">
                    <MiningSchema>
                        <MiningField name="x1" usageType="active"/>
                        <MiningField name="x2" usageType="active"/>
                        <MiningField name="x3" usageType="active"/>
                        <MiningField name="x4" usageType="active"/>
                        <MiningField name="x5" usageType="active"/>
                        <MiningField name="x6" usageType="active"/>
                        <MiningField name="x7" usageType="active"/>
                        <MiningField name="x8" usageType="active"/>
                        <MiningField name="x9" usageType="active"/>
                    </MiningSchema>
                    <Node id="0" recordCount="1076.0">
                        <True/>
                        <Node id="1" recordCount="856.0">
                            <SimplePredicate field="x3" operator="lessOrEqual" value="1039.9626"/>
                            <Node id="2" recordCount="367.0">
                                <SimplePredicate field="x8" operator="lessOrEqual" value="38.591652"/>
                                <Node id="3" recordCount="343.0">
                                    <SimplePredicate field="x9" operator="lessOrEqual" value="74.6575"/>
                                    <Node id="4" score="-5.9999565425840897" recordCount="168.0">
                                        <SimplePredicate field="x2" operator="lessOrEqual" value="107.7238"/>
                                    </Node>
                                    <Node id="5" score="-7.2249941269084363" recordCount="175.0">
                                        <SimplePredicate field="x2" operator="greaterThan" value="107.7238"/>
                                    </Node>
                                </Node>
                                <Node id="6" recordCount="24.0">
                                    <SimplePredicate field="x9" operator="greaterThan" value="74.6575"/>
                                    <Node id="7" score="7.0354675881133808" recordCount="1.0">
                                        <SimplePredicate field="x3" operator="lessOrEqual" value="56.276947"/>
                                    </Node>
                                    <Node id="8" score="-3.0900122424956367" recordCount="23.0">
                                        <SimplePredicate field="x3" operator="greaterThan" value="56.276947"/>
                                    </Node>
                                </Node>
                            </Node>
                            <Node id="9" recordCount="489.0">
                                <SimplePredicate field="x8" operator="greaterThan" value="38.591652"/>
                                <Node id="10" score="67.3306805331133802" recordCount="2.0">
                                    <SimplePredicate field="x4" operator="lessOrEqual" value="15.4459"/>
                                </Node>
                                <Node id="11" recordCount="487.0">
                                    <SimplePredicate field="x4" operator="greaterThan" value="15.4459"/>
                                    <Node id="12" score="-2.9497300350183644" recordCount="463.0">
                                        <SimplePredicate field="x2" operator="lessOrEqual" value="2398.3699"/>
                                    </Node>
                                    <Node id="13" score="2.6188919631133807" recordCount="24.0">
                                        <SimplePredicate field="x2" operator="greaterThan" value="2398.3699"/>
                                    </Node>
                                </Node>
                            </Node>
                        </Node>
                        <Node id="14" recordCount="220.0">
                            <SimplePredicate field="x3" operator="greaterThan" value="1039.9626"/>
                            <Node id="15" score="0.5864095881133817" recordCount="4.0">
                                <SimplePredicate field="x2" operator="lessOrEqual" value="1778.5883"/>
                            </Node>
                            <Node id="16" recordCount="216.0">
                                <SimplePredicate field="x2" operator="greaterThan" value="1778.5883"/>
                                <Node id="17" score="1.6155145881133794" recordCount="1.0">
                                    <SimplePredicate field="x7" operator="lessOrEqual" value="24.0309"/>
                                </Node>
                                <Node id="18" recordCount="215.0">
                                    <SimplePredicate field="x7" operator="greaterThan" value="24.0309"/>
                                    <Node id="19" score="13.0924855881133837" recordCount="11.0">
                                        <SimplePredicate field="x3" operator="lessOrEqual" value="1669.0173"/>
                                    </Node>
                                    <Node id="20" score="16.4540844557604515" recordCount="204.0">
                                        <SimplePredicate field="x3" operator="greaterThan" value="1669.0173"/>
                                    </Node>
                                </Node>
                            </Node>
                        </Node>
                    </Node>
                </TreeModel>
            </Segment>
            <Segment id="3" weight="1">
                <True/>
                <TreeModel modelName="DecisionTreeRegressor" functionName="regression" missingValuePenalty="1.0">
                    <MiningSchema>
                        <MiningField name="x1" usageType="active"/>
                        <MiningField name="x2" usageType="active"/>
                        <MiningField name="x3" usageType="active"/>
                        <MiningField name="x4" usageType="active"/>
                        <MiningField name="x5" usageType="active"/>
                        <MiningField name="x6" usageType="active"/>
                        <MiningField name="x7" usageType="active"/>
                        <MiningField name="x8" usageType="active"/>
                        <MiningField name="x9" usageType="active"/>
                    </MiningSchema>
                    <Node id="0" recordCount="1076.0">
                        <True/>
                        <Node id="1" recordCount="856.0">
                            <SimplePredicate field="x3" operator="lessOrEqual" value="1039.9626"/>
                            <Node id="2" recordCount="367.0">
                                <SimplePredicate field="x8" operator="lessOrEqual" value="38.591652"/>
                                <Node id="3" recordCount="341.0">
                                    <SimplePredicate field="x7" operator="lessOrEqual" value="77.3966"/>
                                    <Node id="4" score="-5.9222204310415236" recordCount="161.0">
                                        <SimplePredicate field="x2" operator="lessOrEqual" value="14.8547"/>
                                    </Node>
                                    <Node id="5" score="-7.1497764564980404" recordCount="180.0">
                                        <SimplePredicate field="x2" operator="greaterThan" value="14.8547"/>
                                    </Node>
                                </Node>
                                <Node id="6" recordCount="26.0">
                                    <SimplePredicate field="x7" operator="greaterThan" value="77.3966"/>
                                    <Node id="7" score="6.9651129122322466" recordCount="1.0">
                                        <SimplePredicate field="x3" operator="lessOrEqual" value="56.276947"/>
                                    </Node>
                                    <Node id="8" score="-3.1826132737505883" recordCount="25.0">
                                        <SimplePredicate field="x3" operator="greaterThan" value="56.276947"/>
                                    </Node>
                                </Node>
                            </Node>
                            <Node id="9" recordCount="489.0">
                                <SimplePredicate field="x8" operator="greaterThan" value="38.591652"/>
                                <Node id="10" score="66.6573737277822431" recordCount="2.0">
                                    <SimplePredicate field="x4" operator="lessOrEqual" value="15.4459"/>
                                </Node>
                                <Node id="11" recordCount="487.0">
                                    <SimplePredicate field="x4" operator="greaterThan" value="15.4459"/>
                                    <Node id="12" score="-2.9202327346681849" recordCount="463.0">
                                        <SimplePredicate field="x2" operator="lessOrEqual" value="2398.3699"/>
                                    </Node>
                                    <Node id="13" score="2.5927030434822473" recordCount="24.0">
                                        <SimplePredicate field="x2" operator="greaterThan" value="2398.3699"/>
                                    </Node>
                                </Node>
                            </Node>
                        </Node>
                        <Node id="14" recordCount="220.0">
                            <SimplePredicate field="x3" operator="greaterThan" value="1039.9626"/>
                            <Node id="15" score="0.5805454922322477" recordCount="4.0">
                                <SimplePredicate field="x2" operator="lessOrEqual" value="1778.5883"/>
                            </Node>
                            <Node id="16" recordCount="216.0">
                                <SimplePredicate field="x2" operator="greaterThan" value="1778.5883"/>
                                <Node id="17" score="1.5993594422322452" recordCount="1.0">
                                    <SimplePredicate field="x7" operator="lessOrEqual" value="24.0309"/>
                                </Node>
                                <Node id="18" recordCount="215.0">
                                    <SimplePredicate field="x7" operator="greaterThan" value="24.0309"/>
                                    <Node id="19" score="12.9615607322322504" recordCount="11.0">
                                        <SimplePredicate field="x3" operator="lessOrEqual" value="1669.0173"/>
                                    </Node>
                                    <Node id="20" score="16.2895436112028058" recordCount="204.0">
                                        <SimplePredicate field="x3" operator="greaterThan" value="1669.0173"/>
                                    </Node>
                                </Node>
                            </Node>
                        </Node>
                    </Node>
                </TreeModel>
            </Segment>
            <Segment id="4" weight="1">
                <True/>
                <TreeModel modelName="DecisionTreeRegressor" functionName="regression" missingValuePenalty="1.0">
                    <MiningSchema>
                        <MiningField name="x1" usageType="active"/>
                        <MiningField name="x2" usageType="active"/>
                        <MiningField name="x3" usageType="active"/>
                        <MiningField name="x4" usageType="active"/>
                        <MiningField name="x5" usageType="active"/>
                        <MiningField name="x6" usageType="active"/>
                        <MiningField name="x7" usageType="active"/>
                        <MiningField name="x8" usageType="active"/>
                        <MiningField name="x9" usageType="active"/>
                    </MiningSchema>
                    <Node id="0" recordCount="1076.0">
                        <True/>
                        <Node id="1" recordCount="856.0">
                            <SimplePredicate field="x3" operator="lessOrEqual" value="1039.9626"/>
                            <Node id="2" recordCount="367.0">
                                <SimplePredicate field="x8" operator="lessOrEqual" value="38.591652"/>
                                <Node id="3" recordCount="343.0">
                                    <SimplePredicate field="x9" operator="lessOrEqual" value="74.6575"/>
                                    <Node id="4" score="-5.8804594318361971" recordCount="168.0">
                                        <SimplePredicate field="x2" operator="lessOrEqual" value="107.7238"/>
                                    </Node>
                                    <Node id="5" score="-7.0826065913084504" recordCount="175.0">
                                        <SimplePredicate field="x2" operator="greaterThan" value="107.7238"/>
                                    </Node>
                                </Node>
                                <Node id="6" recordCount="24.0">
                                    <SimplePredicate field="x9" operator="greaterThan" value="74.6575"/>
                                    <Node id="7" score="6.8954617831099245" recordCount="1.0">
                                        <SimplePredicate field="x3" operator="lessOrEqual" value="56.276947"/>
                                    </Node>
                                    <Node id="8" score="-3.0186617195445926" recordCount="23.0">
                                        <SimplePredicate field="x3" operator="greaterThan" value="56.276947"/>
                                    </Node>
                                </Node>
                            </Node>
                            <Node id="9" recordCount="489.0">
                                <SimplePredicate field="x8" operator="greaterThan" value="38.591652"/>
                                <Node id="10" score="65.9907999905044278" recordCount="2.0">
                                    <SimplePredicate field="x4" operator="lessOrEqual" value="15.4459"/>
                                </Node>
                                <Node id="11" recordCount="487.0">
                                    <SimplePredicate field="x4" operator="greaterThan" value="15.4459"/>
                                    <Node id="12" score="-2.8910304073215038" recordCount="463.0">
                                        <SimplePredicate field="x2" operator="lessOrEqual" value="2398.3699"/>
                                    </Node>
                                    <Node id="13" score="2.5667760130474258" recordCount="24.0">
                                        <SimplePredicate field="x2" operator="greaterThan" value="2398.3699"/>
                                    </Node>
                                </Node>
                            </Node>
                        </Node>
                        <Node id="14" recordCount="220.0">
                            <SimplePredicate field="x3" operator="greaterThan" value="1039.9626"/>
                            <Node id="15" score="0.5747400373099252" recordCount="4.0">
                                <SimplePredicate field="x2" operator="lessOrEqual" value="1778.5883"/>
                            </Node>
                            <Node id="16" recordCount="216.0">
                                <SimplePredicate field="x2" operator="greaterThan" value="1778.5883"/>
                                <Node id="17" score="1.5833658478099224" recordCount="1.0">
                                    <SimplePredicate field="x7" operator="lessOrEqual" value="24.0309"/>
                                </Node>
                                <Node id="18" recordCount="215.0">
                                    <SimplePredicate field="x7" operator="greaterThan" value="24.0309"/>
                                    <Node id="19" score="12.8319451249099288" recordCount="11.0">
                                        <SimplePredicate field="x3" operator="lessOrEqual" value="1669.0173"/>
                                    </Node>
                                    <Node id="20" score="16.1266481750908390" recordCount="204.0">
                                        <SimplePredicate field="x3" operator="greaterThan" value="1669.0173"/>
                                    </Node>
                                </Node>
                            </Node>
                        </Node>
                    </Node>
                </TreeModel>
            </Segment>
            <Segment id="5" weight="1">
                <True/>
                <TreeModel modelName="DecisionTreeRegressor" functionName="regression" missingValuePenalty="1.0">
                    <MiningSchema>
                        <MiningField name="x1" usageType="active"/>
                        <MiningField name="x2" usageType="active"/>
                        <MiningField name="x3" usageType="active"/>
                        <MiningField name="x4" usageType="active"/>
                        <MiningField name="x5" usageType="active"/>
                        <MiningField name="x6" usageType="active"/>
                        <MiningField name="x7" usageType="active"/>
                        <MiningField name="x8" usageType="active"/>
                        <MiningField name="x9" usageType="active"/>
                    </MiningSchema>
                    <Node id="0" recordCount="1076.0">
                        <True/>
                        <Node id="1" recordCount="856.0">
                            <SimplePredicate field="x3" operator="lessOrEqual" value="1039.9626"/>
                            <Node id="2" recordCount="367.0">
                                <SimplePredicate field="x8" operator="lessOrEqual" value="38.591652"/>
                                <Node id="3" recordCount="324.0">
                                    <SimplePredicate field="x9" operator="lessOrEqual" value="41.8434"/>
                                    <Node id="4" score="-5.8041936324127450" recordCount="161.0">
                                        <SimplePredicate field="x2" operator="lessOrEqual" value="14.8547"/>
                                    </Node>
                                    <Node id="5" score="-7.2361347939907406" recordCount="163.0">
                                        <SimplePredicate field="x2" operator="greaterThan" value="14.8547"/>
                                    </Node>
                                </Node>
                                <Node id="6" recordCount="43.0">
                                    <SimplePredicate field="x9" operator="greaterThan" value="41.8434"/>
                                    <Node id="7" score="6.8265071652788247" recordCount="1.0">
                                        <SimplePredicate field="x3" operator="lessOrEqual" value="56.276947"/>
                                    </Node>
                                    <Node id="8" score="-3.8064139467208031" recordCount="42.0">
                                        <SimplePredicate field="x3" operator="greaterThan" value="56.276947"/>
                                    </Node>
                                </Node>
                            </Node>
                            <Node id="9" recordCount="489.0">
                                <SimplePredicate field="x8" operator="greaterThan" value="38.591652"/>
                                <Node id="10" score="65.3308919905993832" recordCount="2.0">
                                    <SimplePredicate field="x4" operator="lessOrEqual" value="15.4459"/>
                                </Node>
                                <Node id="11" recordCount="487.0">
                                    <SimplePredicate field="x4" operator="greaterThan" value="15.4459"/>
                                    <Node id="12" score="-2.8621201032482944" recordCount="463.0">
                                        <SimplePredicate field="x2" operator="lessOrEqual" value="2398.3699"/>
                                    </Node>
                                    <Node id="13" score="2.5411082529169513" recordCount="24.0">
                                        <SimplePredicate field="x2" operator="greaterThan" value="2398.3699"/>
                                    </Node>
                                </Node>
                            </Node>
                        </Node>
                        <Node id="14" recordCount="220.0">
                            <SimplePredicate field="x3" operator="greaterThan" value="1039.9626"/>
                            <Node id="15" score="0.5689926369368261" recordCount="4.0">
                                <SimplePredicate field="x2" operator="lessOrEqual" value="1778.5883"/>
                            </Node>
                            <Node id="16" recordCount="216.0">
                                <SimplePredicate field="x2" operator="greaterThan" value="1778.5883"/>
                                <Node id="17" score="1.5675321893318230" recordCount="1.0">
                                    <SimplePredicate field="x7" operator="lessOrEqual" value="24.0309"/>
                                </Node>
                                <Node id="18" recordCount="215.0">
                                    <SimplePredicate field="x7" operator="greaterThan" value="24.0309"/>
                                    <Node id="19" score="12.7036256736608255" recordCount="11.0">
                                        <SimplePredicate field="x3" operator="lessOrEqual" value="1669.0173"/>
                                    </Node>
                                    <Node id="20" score="15.9653816933399124" recordCount="204.0">
                                        <SimplePredicate field="x3" operator="greaterThan" value="1669.0173"/>
                                    </Node>
                                </Node>
                            </Node>
                        </Node>
                    </Node>
                </TreeModel>
            </Segment>
            <Segment id="6" weight="1">
                <True/>
                <TreeModel modelName="DecisionTreeRegressor" functionName="regression" missingValuePenalty="1.0">
                    <MiningSchema>
                        <MiningField name="x1" usageType="active"/>
                        <MiningField name="x2" usageType="active"/>
                        <MiningField name="x3" usageType="active"/>
                        <MiningField name="x4" usageType="active"/>
                        <MiningField name="x5" usageType="active"/>
                        <MiningField name="x6" usageType="active"/>
                        <MiningField name="x7" usageType="active"/>
                        <MiningField name="x8" usageType="active"/>
                        <MiningField name="x9" usageType="active"/>
                    </MiningSchema>
                    <Node id="0" recordCount="1076.0">
                        <True/>
                        <Node id="1" recordCount="856.0">
                            <SimplePredicate field="x3" operator="lessOrEqual" value="1039.9626"/>
                            <Node id="2" recordCount="367.0">
                                <SimplePredicate field="x8" operator="lessOrEqual" value="38.591652"/>
                                <Node id="3" recordCount="341.0">
                                    <SimplePredicate field="x7" operator="lessOrEqual" value="77.3966"/>
                                    <Node id="4" score="-5.7461516960886190" recordCount="161.0">
                                        <SimplePredicate field="x2" operator="lessOrEqual" value="14.8547"/>
                                    </Node>
                                    <Node id="5" score="-6.9400505882226522" recordCount="180.0">
                                        <SimplePredicate field="x2" operator="greaterThan" value="14.8547"/>
                                    </Node>
                                </Node>
                                <Node id="6" recordCount="26.0">
                                    <SimplePredicate field="x7" operator="greaterThan" value="77.3966"/>
                                    <Node id="7" score="6.7582420936260359" recordCount="1.0">
                                        <SimplePredicate field="x3" operator="lessOrEqual" value="56.276947"/>
                                    </Node>
                                    <Node id="8" score="-3.0702663092343734" recordCount="25.0">
                                        <SimplePredicate field="x3" operator="greaterThan" value="56.276947"/>
                                    </Node>
                                </Node>
                            </Node>
                            <Node id="9" recordCount="489.0">
                                <SimplePredicate field="x8" operator="greaterThan" value="38.591652"/>
                                <Node id="10" score="64.6775830706933874" recordCount="2.0">
                                    <SimplePredicate field="x4" operator="lessOrEqual" value="15.4459"/>
                                </Node>
                                <Node id="11" recordCount="487.0">
                                    <SimplePredicate field="x4" operator="greaterThan" value="15.4459"/>
                                    <Node id="12" score="-2.7201228329847877" recordCount="479.0">
                                        <SimplePredicate field="x2" operator="lessOrEqual" value="3579.752"/>
                                    </Node>
                                    <Node id="13" score="6.4256971703877825" recordCount="8.0">
                                        <SimplePredicate field="x2" operator="greaterThan" value="3579.752"/>
                                    </Node>
                                </Node>
                            </Node>
                        </Node>
                        <Node id="14" recordCount="220.0">
                            <SimplePredicate field="x3" operator="greaterThan" value="1039.9626"/>
                            <Node id="15" score="0.5633027105674566" recordCount="4.0">
                                <SimplePredicate field="x2" operator="lessOrEqual" value="1778.5883"/>
                            </Node>
                            <Node id="16" recordCount="216.0">
                                <SimplePredicate field="x2" operator="greaterThan" value="1778.5883"/>
                                <Node id="17" score="1.5518568674385040" recordCount="1.0">
                                    <SimplePredicate field="x7" operator="lessOrEqual" value="24.0309"/>
                                </Node>
                                <Node id="18" recordCount="215.0">
                                    <SimplePredicate field="x7" operator="greaterThan" value="24.0309"/>
                                    <Node id="19" score="12.5765894169242181" recordCount="11.0">
                                        <SimplePredicate field="x3" operator="lessOrEqual" value="1669.0173"/>
                                    </Node>
                                    <Node id="20" score="15.8057278764064861" recordCount="204.0">
                                        <SimplePredicate field="x3" operator="greaterThan" value="1669.0173"/>
                                    </Node>
                                </Node>
                            </Node>
                        </Node>
                    </Node>
                </TreeModel>
            </Segment>
            <Segment id="7" weight="1">
                <True/>
                <TreeModel modelName="DecisionTreeRegressor" functionName="regression" missingValuePenalty="1.0">
                    <MiningSchema>
                        <MiningField name="x1" usageType="active"/>
                        <MiningField name="x2" usageType="active"/>
                        <MiningField name="x3" usageType="active"/>
                        <MiningField name="x4" usageType="active"/>
                        <MiningField name="x5" usageType="active"/>
                        <MiningField name="x6" usageType="active"/>
                        <MiningField name="x7" usageType="active"/>
                        <MiningField name="x8" usageType="active"/>
                        <MiningField name="x9" usageType="active"/>
                    </MiningSchema>
                    <Node id="0" recordCount="1076.0">
                        <True/>
                        <Node id="1" recordCount="856.0">
                            <SimplePredicate field="x3" operator="lessOrEqual" value="1039.9626"/>
                            <Node id="2" recordCount="367.0">
                                <SimplePredicate field="x8" operator="lessOrEqual" value="38.591652"/>
                                <Node id="3" recordCount="324.0">
                                    <SimplePredicate field="x9" operator="lessOrEqual" value="41.8434"/>
                                    <Node id="4" score="-5.6886901791277324" recordCount="161.0">
                                        <SimplePredicate field="x2" operator="lessOrEqual" value="14.8547"/>
                                    </Node>
                                    <Node id="5" score="-7.0946103502470770" recordCount="163.0">
                                        <SimplePredicate field="x2" operator="greaterThan" value="14.8547"/>
                                    </Node>
                                </Node>
                                <Node id="6" recordCount="43.0">
                                    <SimplePredicate field="x9" operator="greaterThan" value="41.8434"/>
                                    <Node id="7" score="6.6906596726897760" recordCount="1.0">
                                        <SimplePredicate field="x3" operator="lessOrEqual" value="56.276947"/>
                                    </Node>
                                    <Node id="8" score="-3.7210623543941597" recordCount="42.0">
                                        <SimplePredicate field="x3" operator="greaterThan" value="56.276947"/>
                                    </Node>
                                </Node>
                            </Node>
                            <Node id="9" recordCount="489.0">
                                <SimplePredicate field="x8" operator="greaterThan" value="38.591652"/>
                                <Node id="10" score="64.0308072399864585" recordCount="2.0">
                                    <SimplePredicate field="x4" operator="lessOrEqual" value="15.4459"/>
                                </Node>
                                <Node id="11" recordCount="487.0">
                                    <SimplePredicate field="x4" operator="greaterThan" value="15.4459"/>
                                    <Node id="12" score="-2.6184191905930221" recordCount="485.0">
                                        <SimplePredicate field="x4" operator="lessOrEqual" value="1481.4055"/>
                                    </Node>
                                    <Node id="13" score="15.4576901986839026" recordCount="2.0">
                                        <SimplePredicate field="x4" operator="greaterThan" value="1481.4055"/>
                                    </Node>
                                </Node>
                            </Node>
                        </Node>
                        <Node id="14" recordCount="220.0">
                            <SimplePredicate field="x3" operator="greaterThan" value="1039.9626"/>
                            <Node id="15" score="0.5576696834617829" recordCount="4.0">
                                <SimplePredicate field="x2" operator="lessOrEqual" value="1778.5883"/>
                            </Node>
                            <Node id="16" recordCount="216.0">
                                <SimplePredicate field="x2" operator="greaterThan" value="1778.5883"/>
                                <Node id="17" score="1.5363382987641199" recordCount="1.0">
                                    <SimplePredicate field="x7" operator="lessOrEqual" value="24.0309"/>
                                </Node>
                                <Node id="18" recordCount="215.0">
                                    <SimplePredicate field="x7" operator="greaterThan" value="24.0309"/>
                                    <Node id="19" score="12.4508235227549751" recordCount="11.0">
                                        <SimplePredicate field="x3" operator="lessOrEqual" value="1669.0173"/>
                                    </Node>
                                    <Node id="20" score="15.6476705976424544" recordCount="204.0">
                                        <SimplePredicate field="x3" operator="greaterThan" value="1669.0173"/>
                                    </Node>
                                </Node>
                            </Node>
                        </Node>
                    </Node>
                </TreeModel>
            </Segment>
            <Segment id="8" weight="1">
                <True/>
                <TreeModel modelName="DecisionTreeRegressor" functionName="regression" missingValuePenalty="1.0">
                    <MiningSchema>
                        <MiningField name="x1" usageType="active"/>
                        <MiningField name="x2" usageType="active"/>
                        <MiningField name="x3" usageType="active"/>
                        <MiningField name="x4" usageType="active"/>
                        <MiningField name="x5" usageType="active"/>
                        <MiningField name="x6" usageType="active"/>
                        <MiningField name="x7" usageType="active"/>
                        <MiningField name="x8" usageType="active"/>
                        <MiningField name="x9" usageType="active"/>
                    </MiningSchema>
                    <Node id="0" recordCount="1076.0">
                        <True/>
                        <Node id="1" recordCount="856.0">
                            <SimplePredicate field="x3" operator="lessOrEqual" value="1039.9626"/>
                            <Node id="2" recordCount="367.0">
                                <SimplePredicate field="x8" operator="lessOrEqual" value="38.591652"/>
                                <Node id="3" recordCount="343.0">
                                    <SimplePredicate field="x9" operator="lessOrEqual" value="74.6575"/>
                                    <Node id="4" score="-5.6482198831289434" recordCount="168.0">
                                        <SimplePredicate field="x2" operator="lessOrEqual" value="107.7238"/>
                                    </Node>
                                    <Node id="5" score="-6.8073969992050580" recordCount="175.0">
                                        <SimplePredicate field="x2" operator="greaterThan" value="107.7238"/>
                                    </Node>
                                </Node>
                                <Node id="6" recordCount="24.0">
                                    <SimplePredicate field="x9" operator="greaterThan" value="74.6575"/>
                                    <Node id="7" score="6.6237530759628775" recordCount="1.0">
                                        <SimplePredicate field="x3" operator="lessOrEqual" value="56.276947"/>
                                    </Node>
                                    <Node id="8" score="-2.8740851017261138" recordCount="23.0">
                                        <SimplePredicate field="x3" operator="greaterThan" value="56.276947"/>
                                    </Node>
                                </Node>
                            </Node>
                            <Node id="9" recordCount="489.0">
                                <SimplePredicate field="x8" operator="greaterThan" value="38.591652"/>
                                <Node id="10" score="63.3904991675865972" recordCount="2.0">
                                    <SimplePredicate field="x4" operator="lessOrEqual" value="15.4459"/>
                                </Node>
                                <Node id="11" recordCount="487.0">
                                    <SimplePredicate field="x4" operator="greaterThan" value="15.4459"/>
                                    <Node id="12" score="-2.7801134819800328" recordCount="463.0">
                                        <SimplePredicate field="x2" operator="lessOrEqual" value="2398.3699"/>
                                    </Node>
                                    <Node id="13" score="2.5235330994545859" recordCount="24.0">
                                        <SimplePredicate field="x2" operator="greaterThan" value="2398.3699"/>
                                    </Node>
                                </Node>
                            </Node>
                        </Node>
                        <Node id="14" recordCount="220.0">
                            <SimplePredicate field="x3" operator="greaterThan" value="1039.9626"/>
                            <Node id="15" score="0.5520929866271649" recordCount="4.0">
                                <SimplePredicate field="x2" operator="lessOrEqual" value="1778.5883"/>
                            </Node>
                            <Node id="16" recordCount="216.0">
                                <SimplePredicate field="x2" operator="greaterThan" value="1778.5883"/>
                                <Node id="17" score="1.5209749157764794" recordCount="1.0">
                                    <SimplePredicate field="x7" operator="lessOrEqual" value="24.0309"/>
                                </Node>
                                <Node id="18" recordCount="215.0">
                                    <SimplePredicate field="x7" operator="greaterThan" value="24.0309"/>
                                    <Node id="19" score="12.3263152875274233" recordCount="11.0">
                                        <SimplePredicate field="x3" operator="lessOrEqual" value="1669.0173"/>
                                    </Node>
                                    <Node id="20" score="15.4911938916660041" recordCount="204.0">
                                        <SimplePredicate field="x3" operator="greaterThan" value="1669.0173"/>
                                    </Node>
                                </Node>
                            </Node>
                        </Node>
                    </Node>
                </TreeModel>
            </Segment>
            <Segment id="9" weight="1">
                <True/>
                <TreeModel modelName="DecisionTreeRegressor" functionName="regression" missingValuePenalty="1.0">
                    <MiningSchema>
                        <MiningField name="x1" usageType="active"/>
                        <MiningField name="x2" usageType="active"/>
                        <MiningField name="x3" usageType="active"/>
                        <MiningField name="x4" usageType="active"/>
                        <MiningField name="x5" usageType="active"/>
                        <MiningField name="x6" usageType="active"/>
                        <MiningField name="x7" usageType="active"/>
                        <MiningField name="x8" usageType="active"/>
                        <MiningField name="x9" usageType="active"/>
                    </MiningSchema>
                    <Node id="0" recordCount="1076.0">
                        <True/>
                        <Node id="1" recordCount="856.0">
                            <SimplePredicate field="x3" operator="lessOrEqual" value="1039.9626"/>
                            <Node id="2" recordCount="367.0">
                                <SimplePredicate field="x8" operator="lessOrEqual" value="38.591652"/>
                                <Node id="3" recordCount="324.0">
                                    <SimplePredicate field="x9" operator="lessOrEqual" value="41.8434"/>
                                    <Node id="4" score="-5.5753210785051621" recordCount="161.0">
                                        <SimplePredicate field="x2" operator="lessOrEqual" value="14.8547"/>
                                    </Node>
                                    <Node id="5" score="-6.9560169677155237" recordCount="163.0">
                                        <SimplePredicate field="x2" operator="greaterThan" value="14.8547"/>
                                    </Node>
                                </Node>
                                <Node id="6" recordCount="43.0">
                                    <SimplePredicate field="x9" operator="greaterThan" value="41.8434"/>
                                    <Node id="7" score="6.5575155452032483" recordCount="1.0">
                                        <SimplePredicate field="x3" operator="lessOrEqual" value="56.276947"/>
                                    </Node>
                                    <Node id="8" score="-3.6375933205624755" recordCount="42.0">
                                        <SimplePredicate field="x3" operator="greaterThan" value="56.276947"/>
                                    </Node>
                                </Node>
                            </Node>
                            <Node id="9" recordCount="489.0">
                                <SimplePredicate field="x8" operator="greaterThan" value="38.591652"/>
                                <Node id="10" score="62.7565941759107275" recordCount="2.0">
                                    <SimplePredicate field="x4" operator="lessOrEqual" value="15.4459"/>
                                </Node>
                                <Node id="11" recordCount="487.0">
                                    <SimplePredicate field="x4" operator="greaterThan" value="15.4459"/>
                                    <Node id="12" score="-2.5668396416980461" recordCount="485.0">
                                        <SimplePredicate field="x4" operator="lessOrEqual" value="1481.4055"/>
                                    </Node>
                                    <Node id="13" score="15.2778779657025172" recordCount="2.0">
                                        <SimplePredicate field="x4" operator="greaterThan" value="1481.4055"/>
                                    </Node>
                                </Node>
                            </Node>
                        </Node>
                        <Node id="14" recordCount="220.0">
                            <SimplePredicate field="x3" operator="greaterThan" value="1039.9626"/>
                            <Node id="15" score="0.5465720567608932" recordCount="4.0">
                                <SimplePredicate field="x2" operator="lessOrEqual" value="1778.5883"/>
                            </Node>
                            <Node id="16" recordCount="216.0">
                                <SimplePredicate field="x2" operator="greaterThan" value="1778.5883"/>
                                <Node id="17" score="1.5057651666187137" recordCount="1.0">
                                    <SimplePredicate field="x7" operator="lessOrEqual" value="24.0309"/>
                                </Node>
                                <Node id="18" recordCount="215.0">
                                    <SimplePredicate field="x7" operator="greaterThan" value="24.0309"/>
                                    <Node id="19" score="12.4474379050649056" recordCount="13.0">
                                        <SimplePredicate field="x2" operator="lessOrEqual" value="4375.3096"/>
                                    </Node>
                                    <Node id="20" score="15.3515762330504693" recordCount="202.0">
                                        <SimplePredicate field="x2" operator="greaterThan" value="4375.3096"/>
                                    </Node>
                                </Node>
                            </Node>
                        </Node>
                    </Node>
                </TreeModel>
            </Segment>
            <Segment id="10" weight="1">
                <True/>
                <TreeModel modelName="DecisionTreeRegressor" functionName="regression" missingValuePenalty="1.0">
                    <MiningSchema>
                        <MiningField name="x1" usageType="active"/>
                        <MiningField name="x2" usageType="active"/>
                        <MiningField name="x3" usageType="active"/>
                        <MiningField name="x4" usageType="active"/>
                        <MiningField name="x5" usageType="active"/>
                        <MiningField name="x6" usageType="active"/>
                        <MiningField name="x7" usageType="active"/>
                        <MiningField name="x8" usageType="active"/>
                        <MiningField name="x9" usageType="active"/>
                    </MiningSchema>
                    <Node id="0" recordCount="1076.0">
                        <True/>
                        <Node id="1" recordCount="856.0">
                            <SimplePredicate field="x3" operator="lessOrEqual" value="1039.9626"/>
                            <Node id="2" recordCount="367.0">
                                <SimplePredicate field="x8" operator="lessOrEqual" value="38.591652"/>
                                <Node id="3" recordCount="341.0">
                                    <SimplePredicate field="x7" operator="lessOrEqual" value="77.3966"/>
                                    <Node id="4" score="-5.5768607373874222" recordCount="178.0">
                                        <SimplePredicate field="x4" operator="lessOrEqual" value="30.75175"/>
                                    </Node>
                                    <Node id="5" score="-6.7276844025517244" recordCount="163.0">
                                        <SimplePredicate field="x4" operator="greaterThan" value="30.75175"/>
                                    </Node>
                                </Node>
                                <Node id="6" recordCount="26.0">
                                    <SimplePredicate field="x7" operator="greaterThan" value="77.3966"/>
                                    <Node id="7" score="6.4919403897512158" recordCount="1.0">
                                        <SimplePredicate field="x3" operator="lessOrEqual" value="56.276947"/>
                                    </Node>
                                    <Node id="8" score="-2.9240098472514893" recordCount="25.0">
                                        <SimplePredicate field="x3" operator="greaterThan" value="56.276947"/>
                                    </Node>
                                </Node>
                            </Node>
                            <Node id="9" recordCount="489.0">
                                <SimplePredicate field="x8" operator="greaterThan" value="38.591652"/>
                                <Node id="10" score="62.1290282341516189" recordCount="2.0">
                                    <SimplePredicate field="x4" operator="lessOrEqual" value="15.4459"/>
                                </Node>
                                <Node id="11" recordCount="487.0">
                                    <SimplePredicate field="x4" operator="greaterThan" value="15.4459"/>
                                    <Node id="12" score="-2.7266439507432541" recordCount="463.0">
                                        <SimplePredicate field="x2" operator="lessOrEqual" value="2398.3699"/>
                                    </Node>
                                    <Node id="13" score="2.5090955668708537" recordCount="24.0">
                                        <SimplePredicate field="x2" operator="greaterThan" value="2398.3699"/>
                                    </Node>
                                </Node>
                            </Node>
                        </Node>
                        <Node id="14" recordCount="220.0">
                            <SimplePredicate field="x3" operator="greaterThan" value="1039.9626"/>
                            <Node id="15" score="0.5411063361932857" recordCount="4.0">
                                <SimplePredicate field="x2" operator="lessOrEqual" value="1778.5883"/>
                            </Node>
                            <Node id="16" recordCount="216.0">
                                <SimplePredicate field="x2" operator="greaterThan" value="1778.5883"/>
                                <Node id="17" score="1.4907075149525273" recordCount="1.0">
                                    <SimplePredicate field="x7" operator="lessOrEqual" value="24.0309"/>
                                </Node>
                                <Node id="18" recordCount="215.0">
                                    <SimplePredicate field="x7" operator="greaterThan" value="24.0309"/>
                                    <Node id="19" score="12.0627370010852140" recordCount="11.0">
                                        <SimplePredicate field="x3" operator="lessOrEqual" value="1669.0173"/>
                                    </Node>
                                    <Node id="20" score="15.1839050681945231" recordCount="204.0">
                                        <SimplePredicate field="x3" operator="greaterThan" value="1669.0173"/>
                                    </Node>
                                </Node>
                            </Node>
                        </Node>
                    </Node>
                </TreeModel>
            </Segment>
            <Segment id="11" weight="1">
                <True/>
                <TreeModel modelName="DecisionTreeRegressor" functionName="regression" missingValuePenalty="1.0">
                    <MiningSchema>
                        <MiningField name="x1" usageType="active"/>
                        <MiningField name="x2" usageType="active"/>
                        <MiningField name="x3" usageType="active"/>
                        <MiningField name="x4" usageType="active"/>
                        <MiningField name="x5" usageType="active"/>
                        <MiningField name="x6" usageType="active"/>
                        <MiningField name="x7" usageType="active"/>
                        <MiningField name="x8" usageType="active"/>
                        <MiningField name="x9" usageType="active"/>
                    </MiningSchema>
                    <Node id="0" recordCount="1076.0">
                        <True/>
                        <Node id="1" recordCount="856.0">
                            <SimplePredicate field="x3" operator="lessOrEqual" value="1039.9626"/>
                            <Node id="2" recordCount="367.0">
                                <SimplePredicate field="x8" operator="lessOrEqual" value="38.591652"/>
                                <Node id="3" recordCount="324.0">
                                    <SimplePredicate field="x9" operator="lessOrEqual" value="41.8434"/>
                                    <Node id="4" score="-5.4637992603462440" recordCount="161.0">
                                        <SimplePredicate field="x2" operator="lessOrEqual" value="14.8547"/>
                                    </Node>
                                    <Node id="5" score="-6.8205429511415607" recordCount="163.0">
                                        <SimplePredicate field="x2" operator="greaterThan" value="14.8547"/>
                                    </Node>
                                </Node>
                                <Node id="6" recordCount="43.0">
                                    <SimplePredicate field="x9" operator="greaterThan" value="41.8434"/>
                                    <Node id="7" score="6.4270209858537033" recordCount="1.0">
                                        <SimplePredicate field="x3" operator="lessOrEqual" value="56.276947"/>
                                    </Node>
                                    <Node id="8" score="-3.5559498321390390" recordCount="42.0">
                                        <SimplePredicate field="x3" operator="greaterThan" value="56.276947"/>
                                    </Node>
                                </Node>
                            </Node>
                            <Node id="9" recordCount="489.0">
                                <SimplePredicate field="x8" operator="greaterThan" value="38.591652"/>
                                <Node id="10" score="61.5077379518100997" recordCount="2.0">
                                    <SimplePredicate field="x4" operator="lessOrEqual" value="15.4459"/>
                                </Node>
                                <Node id="11" recordCount="487.0">
                                    <SimplePredicate field="x4" operator="greaterThan" value="15.4459"/>
                                    <Node id="12" score="-2.5162797804001764" recordCount="485.0">
                                        <SimplePredicate field="x4" operator="lessOrEqual" value="1481.4055"/>
                                    </Node>
                                    <Node id="13" score="15.1000082303767833" recordCount="2.0">
                                        <SimplePredicate field="x4" operator="greaterThan" value="1481.4055"/>
                                    </Node>
                                </Node>
                            </Node>
                        </Node>
                        <Node id="14" recordCount="220.0">
                            <SimplePredicate field="x3" operator="greaterThan" value="1039.9626"/>
                            <Node id="15" score="0.5356952728313527" recordCount="4.0">
                                <SimplePredicate field="x2" operator="lessOrEqual" value="1778.5883"/>
                            </Node>
                            <Node id="16" recordCount="216.0">
                                <SimplePredicate field="x2" operator="greaterThan" value="1778.5883"/>
                                <Node id="17" score="1.4758004398030025" recordCount="1.0">
                                    <SimplePredicate field="x7" operator="lessOrEqual" value="24.0309"/>
                                </Node>
                                <Node id="18" recordCount="215.0">
                                    <SimplePredicate field="x7" operator="greaterThan" value="24.0309"/>
                                    <Node id="19" score="12.1831289678981154" recordCount="13.0">
                                        <SimplePredicate field="x2" operator="lessOrEqual" value="4375.3096"/>
                                    </Node>
                                    <Node id="20" score="15.0471484996619296" recordCount="202.0">
                                        <SimplePredicate field="x2" operator="greaterThan" value="4375.3096"/>
                                    </Node>
                                </Node>
                            </Node>
                        </Node>
                    </Node>
                </TreeModel>
            </Segment>
            <Segment id="12" weight="1">
                <True/>
                <TreeModel modelName="DecisionTreeRegressor" functionName="regression" missingValuePenalty="1.0">
                    <MiningSchema>
                        <MiningField name="x1" usageType="active"/>
                        <MiningField name="x2" usageType="active"/>
                        <MiningField name="x3" usageType="active"/>
                        <MiningField name="x4" usageType="active"/>
                        <MiningField name="x5" usageType="active"/>
                        <MiningField name="x6" usageType="active"/>
                        <MiningField name="x7" usageType="active"/>
                        <MiningField name="x8" usageType="active"/>
                        <MiningField name="x9" usageType="active"/>
                    </MiningSchema>
                    <Node id="0" recordCount="1076.0">
                        <True/>
                        <Node id="1" recordCount="856.0">
                            <SimplePredicate field="x3" operator="lessOrEqual" value="1039.9626"/>
                            <Node id="2" recordCount="367.0">
                                <SimplePredicate field="x8" operator="lessOrEqual" value="38.591652"/>
                                <Node id="3" recordCount="343.0">
                                    <SimplePredicate field="x9" operator="lessOrEqual" value="74.6575"/>
                                    <Node id="4" score="-5.4249185263287867" recordCount="168.0">
                                        <SimplePredicate field="x2" operator="lessOrEqual" value="107.7238"/>
                                    </Node>
                                    <Node id="5" score="-6.5430791808240283" recordCount="175.0">
                                        <SimplePredicate field="x2" operator="greaterThan" value="107.7238"/>
                                    </Node>
                                </Node>
                                <Node id="6" recordCount="24.0">
                                    <SimplePredicate field="x9" operator="greaterThan" value="74.6575"/>
                                    <Node id="7" score="6.3627507759951669" recordCount="1.0">
                                        <SimplePredicate field="x3" operator="lessOrEqual" value="56.276947"/>
                                    </Node>
                                    <Node id="8" score="-2.7364002210956988" recordCount="23.0">
                                        <SimplePredicate field="x3" operator="greaterThan" value="56.276947"/>
                                    </Node>
                                </Node>
                            </Node>
                            <Node id="9" recordCount="489.0">
                                <SimplePredicate field="x8" operator="greaterThan" value="38.591652"/>
                                <Node id="10" score="60.8926605722920016" recordCount="2.0">
                                    <SimplePredicate field="x4" operator="lessOrEqual" value="15.4459"/>
                                </Node>
                                <Node id="11" recordCount="487.0">
                                    <SimplePredicate field="x4" operator="greaterThan" value="15.4459"/>
                                    <Node id="12" score="-2.5643591071983924" recordCount="479.0">
                                        <SimplePredicate field="x2" operator="lessOrEqual" value="3579.752"/>
                                    </Node>
                                    <Node id="13" score="6.2542865106289245" recordCount="8.0">
                                        <SimplePredicate field="x2" operator="greaterThan" value="3579.752"/>
                                    </Node>
                                </Node>
                            </Node>
                        </Node>
                        <Node id="14" recordCount="220.0">
                            <SimplePredicate field="x3" operator="greaterThan" value="1039.9626"/>
                            <Node id="15" score="0.5303383201030396" recordCount="4.0">
                                <SimplePredicate field="x2" operator="lessOrEqual" value="1778.5883"/>
                            </Node>
                            <Node id="16" recordCount="216.0">
                                <SimplePredicate field="x2" operator="greaterThan" value="1778.5883"/>
                                <Node id="17" score="1.4610424354049716" recordCount="1.0">
                                    <SimplePredicate field="x7" operator="lessOrEqual" value="24.0309"/>
                                </Node>
                                <Node id="18" recordCount="215.0">
                                    <SimplePredicate field="x7" operator="greaterThan" value="24.0309"/>
                                    <Node id="19" score="11.8046564166766697" recordCount="11.0">
                                        <SimplePredicate field="x3" operator="lessOrEqual" value="1669.0173"/>
                                    </Node>
                                    <Node id="20" score="14.8827176774303762" recordCount="204.0">
                                        <SimplePredicate field="x3" operator="greaterThan" value="1669.0173"/>
                                    </Node>
                                </Node>
                            </Node>
                        </Node>
                    </Node>
                </TreeModel>
            </Segment>
            <Segment id="13" weight="1">
                <True/>
                <TreeModel modelName="DecisionTreeRegressor" functionName="regression" missingValuePenalty="1.0">
                    <MiningSchema>
                        <MiningField name="x1" usageType="active"/>
                        <MiningField name="x2" usageType="active"/>
                        <MiningField name="x3" usageType="active"/>
                        <MiningField name="x4" usageType="active"/>
                        <MiningField name="x5" usageType="active"/>
                        <MiningField name="x6" usageType="active"/>
                        <MiningField name="x7" usageType="active"/>
                        <MiningField name="x8" usageType="active"/>
                        <MiningField name="x9" usageType="active"/>
                    </MiningSchema>
                    <Node id="0" recordCount="1076.0">
                        <True/>
                        <Node id="1" recordCount="856.0">
                            <SimplePredicate field="x3" operator="lessOrEqual" value="1039.9626"/>
                            <Node id="2" recordCount="367.0">
                                <SimplePredicate field="x8" operator="lessOrEqual" value="38.591652"/>
                                <Node id="3" recordCount="324.0">
                                    <SimplePredicate field="x9" operator="lessOrEqual" value="41.8434"/>
                                    <Node id="4" score="-5.3549120824794905" recordCount="161.0">
                                        <SimplePredicate field="x2" operator="lessOrEqual" value="14.8547"/>
                                    </Node>
                                    <Node id="5" score="-6.6873183227008637" recordCount="163.0">
                                        <SimplePredicate field="x2" operator="greaterThan" value="14.8547"/>
                                    </Node>
                                </Node>
                                <Node id="6" recordCount="43.0">
                                    <SimplePredicate field="x9" operator="greaterThan" value="41.8434"/>
                                    <Node id="7" score="-4.3900301508139501" recordCount="27.0">
                                        <SimplePredicate field="x5" operator="lessOrEqual" value="152.19075"/>
                                    </Node>
                                    <Node id="8" score="-1.3228175744666113" recordCount="16.0">
                                        <SimplePredicate field="x5" operator="greaterThan" value="152.19075"/>
                                    </Node>
                                </Node>
                            </Node>
                            <Node id="9" recordCount="489.0">
                                <SimplePredicate field="x8" operator="greaterThan" value="38.591652"/>
                                <Node id="10" score="60.2837339665690806" recordCount="2.0">
                                    <SimplePredicate field="x4" operator="lessOrEqual" value="15.4459"/>
                                </Node>
                                <Node id="11" recordCount="487.0">
                                    <SimplePredicate field="x4" operator="greaterThan" value="15.4459"/>
                                    <Node id="12" score="-2.6485711223598312" recordCount="463.0">
                                        <SimplePredicate field="x2" operator="lessOrEqual" value="2398.3699"/>
                                    </Node>
                                    <Node id="13" score="2.4907352746763931" recordCount="24.0">
                                        <SimplePredicate field="x2" operator="greaterThan" value="2398.3699"/>
                                    </Node>
                                </Node>
                            </Node>
                        </Node>
                        <Node id="14" recordCount="220.0">
                            <SimplePredicate field="x3" operator="greaterThan" value="1039.9626"/>
                            <Node id="15" score="0.5250349369020091" recordCount="4.0">
                                <SimplePredicate field="x2" operator="lessOrEqual" value="1778.5883"/>
                            </Node>
                            <Node id="16" recordCount="216.0">
                                <SimplePredicate field="x2" operator="greaterThan" value="1778.5883"/>
                                <Node id="17" score="1.4464320110509217" recordCount="1.0">
                                    <SimplePredicate field="x7" operator="lessOrEqual" value="24.0309"/>
                                </Node>
                                <Node id="18" recordCount="215.0">
                                    <SimplePredicate field="x7" operator="greaterThan" value="24.0309"/>
                                    <Node id="19" score="11.9243091986015752" recordCount="13.0">
                                        <SimplePredicate field="x2" operator="lessOrEqual" value="4375.3096"/>
                                    </Node>
                                    <Node id="20" score="14.7487641135129959" recordCount="202.0">
                                        <SimplePredicate field="x2" operator="greaterThan" value="4375.3096"/>
                                    </Node>
                                </Node>
                            </Node>
                        </Node>
                    </Node>
                </TreeModel>
            </Segment>
            <Segment id="14" weight="1">
                <True/>
                <TreeModel modelName="DecisionTreeRegressor" functionName="regression" missingValuePenalty="1.0">
                    <MiningSchema>
                        <MiningField name="x1" usageType="active"/>
                        <MiningField name="x2" usageType="active"/>
                        <MiningField name="x3" usageType="active"/>
                        <MiningField name="x4" usageType="active"/>
                        <MiningField name="x5" usageType="active"/>
                        <MiningField name="x6" usageType="active"/>
                        <MiningField name="x7" usageType="active"/>
                        <MiningField name="x8" usageType="active"/>
                        <MiningField name="x9" usageType="active"/>
                    </MiningSchema>
                    <Node id="0" recordCount="1076.0">
                        <True/>
                        <Node id="1" recordCount="856.0">
                            <SimplePredicate field="x3" operator="lessOrEqual" value="1039.9626"/>
                            <Node id="2" recordCount="367.0">
                                <SimplePredicate field="x8" operator="lessOrEqual" value="38.591652"/>
                                <Node id="3" recordCount="341.0">
                                    <SimplePredicate field="x7" operator="lessOrEqual" value="77.3966"/>
                                    <Node id="4" score="-5.3558600495000599" recordCount="178.0">
                                        <SimplePredicate field="x4" operator="lessOrEqual" value="30.75175"/>
                                    </Node>
                                    <Node id="5" score="-6.4670779873287012" recordCount="163.0">
                                        <SimplePredicate field="x4" operator="greaterThan" value="30.75175"/>
                                    </Node>
                                </Node>
                                <Node id="6" recordCount="26.0">
                                    <SimplePredicate field="x7" operator="greaterThan" value="77.3966"/>
                                    <Node id="7" score="-3.6312613013475863" recordCount="18.0">
                                        <SimplePredicate field="x1" operator="lessOrEqual" value="1869.1882"/>
                                    </Node>
                                    <Node id="8" score="0.2360716622992578" recordCount="8.0">
                                        <SimplePredicate field="x1" operator="greaterThan" value="1869.1882"/>
                                    </Node>
                                </Node>
                            </Node>
                            <Node id="9" recordCount="489.0">
                                <SimplePredicate field="x8" operator="greaterThan" value="38.591652"/>
                                <Node id="10" score="59.6808966269033903" recordCount="2.0">
                                    <SimplePredicate field="x4" operator="lessOrEqual" value="15.4459"/>
                                </Node>
                                <Node id="11" recordCount="487.0">
                                    <SimplePredicate field="x4" operator="greaterThan" value="15.4459"/>
                                    <Node id="12" score="-2.4424098785365032" recordCount="485.0">
                                        <SimplePredicate field="x4" operator="lessOrEqual" value="1481.4055"/>
                                    </Node>
                                    <Node id="13" score="14.8615579302199627" recordCount="2.0">
                                        <SimplePredicate field="x4" operator="greaterThan" value="1481.4055"/>
                                    </Node>
                                </Node>
                            </Node>
                        </Node>
                        <Node id="14" recordCount="220.0">
                            <SimplePredicate field="x3" operator="greaterThan" value="1039.9626"/>
                            <Node id="15" score="0.5197845875329898" recordCount="4.0">
                                <SimplePredicate field="x2" operator="lessOrEqual" value="1778.5883"/>
                            </Node>
                            <Node id="16" recordCount="216.0">
                                <SimplePredicate field="x2" operator="greaterThan" value="1778.5883"/>
                                <Node id="17" score="1.4319676909404127" recordCount="1.0">
                                    <SimplePredicate field="x7" operator="lessOrEqual" value="24.0309"/>
                                </Node>
                                <Node id="18" recordCount="215.0">
                                    <SimplePredicate field="x7" operator="greaterThan" value="24.0309"/>
                                    <Node id="19" score="11.5519606428061898" recordCount="11.0">
                                        <SimplePredicate field="x3" operator="lessOrEqual" value="1669.0173"/>
                                    </Node>
                                    <Node id="20" score="14.5875104888993352" recordCount="204.0">
                                        <SimplePredicate field="x3" operator="greaterThan" value="1669.0173"/>
                                    </Node>
                                </Node>
                            </Node>
                        </Node>
                    </Node>
                </TreeModel>
            </Segment>
            <Segment id="15" weight="1">
                <True/>
                <TreeModel modelName="DecisionTreeRegressor" functionName="regression" missingValuePenalty="1.0">
                    <MiningSchema>
                        <MiningField name="x1" usageType="active"/>
                        <MiningField name="x2" usageType="active"/>
                        <MiningField name="x3" usageType="active"/>
                        <MiningField name="x4" usageType="active"/>
                        <MiningField name="x5" usageType="active"/>
                        <MiningField name="x6" usageType="active"/>
                        <MiningField name="x7" usageType="active"/>
                        <MiningField name="x8" usageType="active"/>
                        <MiningField name="x9" usageType="active"/>
                    </MiningSchema>
                    <Node id="0" recordCount="1076.0">
                        <True/>
                        <Node id="1" recordCount="856.0">
                            <SimplePredicate field="x3" operator="lessOrEqual" value="1039.9626"/>
                            <Node id="2" recordCount="367.0">
                                <SimplePredicate field="x8" operator="lessOrEqual" value="38.591652"/>
                                <Node id="3" recordCount="324.0">
                                    <SimplePredicate field="x9" operator="lessOrEqual" value="41.8434"/>
                                    <Node id="4" score="-5.2478043611596936" recordCount="161.0">
                                        <SimplePredicate field="x2" operator="lessOrEqual" value="14.8547"/>
                                    </Node>
                                    <Node id="5" score="-6.5570391021583081" recordCount="163.0">
                                        <SimplePredicate field="x2" operator="greaterThan" value="14.8547"/>
                                    </Node>
                                </Node>
                                <Node id="6" recordCount="43.0">
                                    <SimplePredicate field="x9" operator="greaterThan" value="41.8434"/>
                                    <Node id="7" score="6.3099907273568885" recordCount="1.0">
                                        <SimplePredicate field="x3" operator="lessOrEqual" value="56.276947"/>
                                    </Node>
                                    <Node id="8" score="-3.4013699164661633" recordCount="42.0">
                                        <SimplePredicate field="x3" operator="greaterThan" value="56.276947"/>
                                    </Node>
                                </Node>
                            </Node>
                            <Node id="9" recordCount="489.0">
                                <SimplePredicate field="x8" operator="greaterThan" value="38.591652"/>
                                <Node id="10" score="59.0840876606343528" recordCount="2.0">
                                    <SimplePredicate field="x4" operator="lessOrEqual" value="15.4459"/>
                                </Node>
                                <Node id="11" recordCount="487.0">
                                    <SimplePredicate field="x4" operator="greaterThan" value="15.4459"/>
                                    <Node id="12" score="-2.5976613123508692" recordCount="463.0">
                                        <SimplePredicate field="x2" operator="lessOrEqual" value="2398.3699"/>
                                    </Node>
                                    <Node id="13" score="2.4758320475410316" recordCount="24.0">
                                        <SimplePredicate field="x2" operator="greaterThan" value="2398.3699"/>
                                    </Node>
                                </Node>
                            </Node>
                        </Node>
                        <Node id="14" recordCount="220.0">
                            <SimplePredicate field="x3" operator="greaterThan" value="1039.9626"/>
                            <Node id="15" score="0.5145867416576602" recordCount="4.0">
                                <SimplePredicate field="x2" operator="lessOrEqual" value="1778.5883"/>
                            </Node>
                            <Node id="16" recordCount="216.0">
                                <SimplePredicate field="x2" operator="greaterThan" value="1778.5883"/>
                                <Node id="17" score="1.4176480140310090" recordCount="1.0">
                                    <SimplePredicate field="x7" operator="lessOrEqual" value="24.0309"/>
                                </Node>
                                <Node id="18" recordCount="215.0">
                                    <SimplePredicate field="x7" operator="greaterThan" value="24.0309"/>
                                    <Node id="19" score="11.6708661934423112" recordCount="13.0">
                                        <SimplePredicate field="x2" operator="lessOrEqual" value="4375.3096"/>
                                    </Node>
                                    <Node id="20" score="14.4563030159580226" recordCount="202.0">
                                        <SimplePredicate field="x2" operator="greaterThan" value="4375.3096"/>
                                    </Node>
                                </Node>
                            </Node>
                        </Node>
                    </Node>
                </TreeModel>
            </Segment>
            <Segment id="16" weight="1">
                <True/>
                <TreeModel modelName="DecisionTreeRegressor" functionName="regression" missingValuePenalty="1.0">
                    <MiningSchema>
                        <MiningField name="x1" usageType="active"/>
                        <MiningField name="x2" usageType="active"/>
                        <MiningField name="x3" usageType="active"/>
                        <MiningField name="x4" usageType="active"/>
                        <MiningField name="x5" usageType="active"/>
                        <MiningField name="x6" usageType="active"/>
                        <MiningField name="x7" usageType="active"/>
                        <MiningField name="x8" usageType="active"/>
                        <MiningField name="x9" usageType="active"/>
                    </MiningSchema>
                    <Node id="0" recordCount="1076.0">
                        <True/>
                        <Node id="1" recordCount="856.0">
                            <SimplePredicate field="x3" operator="lessOrEqual" value="1039.9626"/>
                            <Node id="2" recordCount="367.0">
                                <SimplePredicate field="x8" operator="lessOrEqual" value="38.591652"/>
                                <Node id="3" recordCount="324.0">
                                    <SimplePredicate field="x9" operator="lessOrEqual" value="41.8434"/>
                                    <Node id="4" score="-5.1953263175480977" recordCount="161.0">
                                        <SimplePredicate field="x2" operator="lessOrEqual" value="14.8547"/>
                                    </Node>
                                    <Node id="5" score="-6.4914687111367204" recordCount="163.0">
                                        <SimplePredicate field="x2" operator="greaterThan" value="14.8547"/>
                                    </Node>
                                </Node>
                                <Node id="6" recordCount="43.0">
                                    <SimplePredicate field="x9" operator="greaterThan" value="41.8434"/>
                                    <Node id="7" score="-4.2622749507904230" recordCount="27.0">
                                        <SimplePredicate field="x5" operator="lessOrEqual" value="152.19075"/>
                                    </Node>
                                    <Node id="8" score="-1.2562904147023957" recordCount="16.0">
                                        <SimplePredicate field="x5" operator="greaterThan" value="152.19075"/>
                                    </Node>
                                </Node>
                            </Node>
                            <Node id="9" recordCount="489.0">
                                <SimplePredicate field="x8" operator="greaterThan" value="38.591652"/>
                                <Node id="10" score="58.4932467840280097" recordCount="2.0">
                                    <SimplePredicate field="x4" operator="lessOrEqual" value="15.4459"/>
                                </Node>
                                <Node id="11" recordCount="487.0">
                                    <SimplePredicate field="x4" operator="greaterThan" value="15.4459"/>
                                    <Node id="12" score="-2.3943105450589228" recordCount="485.0">
                                        <SimplePredicate field="x4" operator="lessOrEqual" value="1481.4055"/>
                                    </Node>
                                    <Node id="13" score="14.6881840304423523" recordCount="2.0">
                                        <SimplePredicate field="x4" operator="greaterThan" value="1481.4055"/>
                                    </Node>
                                </Node>
                            </Node>
                        </Node>
                        <Node id="14" recordCount="220.0">
                            <SimplePredicate field="x3" operator="greaterThan" value="1039.9626"/>
                            <Node id="15" score="0.5094408742410845" recordCount="4.0">
                                <SimplePredicate field="x2" operator="lessOrEqual" value="1778.5883"/>
                            </Node>
                            <Node id="16" recordCount="216.0">
                                <SimplePredicate field="x2" operator="greaterThan" value="1778.5883"/>
                                <Node id="17" score="1.4034715338906985" recordCount="1.0">
                                    <SimplePredicate field="x7" operator="lessOrEqual" value="24.0309"/>
                                </Node>
                                <Node id="18" recordCount="215.0">
                                    <SimplePredicate field="x7" operator="greaterThan" value="24.0309"/>
                                    <Node id="19" score="11.3045390826845278" recordCount="11.0">
                                        <SimplePredicate field="x3" operator="lessOrEqual" value="1669.0173"/>
                                    </Node>
                                    <Node id="20" score="14.2981646820164663" recordCount="204.0">
                                        <SimplePredicate field="x3" operator="greaterThan" value="1669.0173"/>
                                    </Node>
                                </Node>
                            </Node>
                        </Node>
                    </Node>
                </TreeModel>
            </Segment>
            <Segment id="17" weight="1">
                <True/>
                <TreeModel modelName="DecisionTreeRegressor" functionName="regression" missingValuePenalty="1.0">
                    <MiningSchema>
                        <MiningField name="x1" usageType="active"/>
                        <MiningField name="x2" usageType="active"/>
                        <MiningField name="x3" usageType="active"/>
                        <MiningField name="x4" usageType="active"/>
                        <MiningField name="x5" usageType="active"/>
                        <MiningField name="x6" usageType="active"/>
                        <MiningField name="x7" usageType="active"/>
                        <MiningField name="x8" usageType="active"/>
                        <MiningField name="x9" usageType="active"/>
                    </MiningSchema>
                    <Node id="0" recordCount="1076.0">
                        <True/>
                        <Node id="1" recordCount="856.0">
                            <SimplePredicate field="x3" operator="lessOrEqual" value="1039.9626"/>
                            <Node id="2" recordCount="367.0">
                                <SimplePredicate field="x8" operator="lessOrEqual" value="38.591652"/>
                                <Node id="3" recordCount="342.0">
                                    <SimplePredicate field="x6" operator="lessOrEqual" value="103.07385"/>
                                    <Node id="4" score="-5.1583448513763051" recordCount="168.0">
                                        <SimplePredicate field="x2" operator="lessOrEqual" value="107.7238"/>
                                    </Node>
                                    <Node id="5" score="-6.2398644236310021" recordCount="174.0">
                                        <SimplePredicate field="x2" operator="greaterThan" value="107.7238"/>
                                    </Node>
                                </Node>
                                <Node id="6" recordCount="25.0">
                                    <SimplePredicate field="x6" operator="greaterThan" value="103.07385"/>
                                    <Node id="7" score="6.2594537242303439" recordCount="1.0">
                                        <SimplePredicate field="x3" operator="lessOrEqual" value="51.25195"/>
                                    </Node>
                                    <Node id="8" score="-2.6401135939522780" recordCount="24.0">
                                        <SimplePredicate field="x3" operator="greaterThan" value="51.25195"/>
                                    </Node>
                                </Node>
                            </Node>
                            <Node id="9" recordCount="489.0">
